digraph Tree {
node [shape=box] ;
0 [label="TotalWorkingYears <= 2.5\ngini = 0.276\nsamples = 3286\nvalue = [2742, 544]"] ;
1 [label="TrainingTimesLastYear <= 1.5\ngini = 0.499\nsamples = 289\nvalue = [150, 139]"] ;
0 -> 1 [labeldistance=2.5, labelangle=45, headlabel="True"] ;
2 [label="gini = 0.0\nsamples = 19\nvalue = [19, 0]"] ;
1 -> 2 ;
3 [label="MonthlyIncome <= 161855.0\ngini = 0.5\nsamples = 270\nvalue = [131, 139]"] ;
1 -> 3 ;
4 [label="MonthlyIncome <= 23140.0\ngini = 0.495\nsamples = 253\nvalue = [114, 139]"] ;
3 -> 4 ;
5 [label="NumCompaniesWorked <= 0.5\ngini = 0.278\nsamples = 24\nvalue = [20, 4]"] ;
4 -> 5 ;
6 [label="gini = 0.0\nsamples = 2\nvalue = [0, 2]"] ;
5 -> 6 ;
7 [label="MonthlyIncome <= 20255.0\ngini = 0.165\nsamples = 22\nvalue = [20, 2]"] ;
5 -> 7 ;
8 [label="MonthlyIncome <= 19425.0\ngini = 0.444\nsamples = 6\nvalue = [4, 2]"] ;
7 -> 8 ;
9 [label="gini = 0.0\nsamples = 4\nvalue = [4, 0]"] ;
8 -> 9 ;
10 [label="gini = 0.0\nsamples = 2\nvalue = [0, 2]"] ;
8 -> 10 ;
11 [label="gini = 0.0\nsamples = 16\nvalue = [16, 0]"] ;
7 -> 11 ;
12 [label="Age <= 32.5\ngini = 0.484\nsamples = 229\nvalue = [94, 135]"] ;
4 -> 12 ;
13 [label="TotalWorkingYears <= 1.5\ngini = 0.459\nsamples = 193\nvalue = [69, 124]"] ;
12 -> 13 ;
14 [label="Age <= 23.5\ngini = 0.415\nsamples = 153\nvalue = [45, 108]"] ;
13 -> 14 ;
15 [label="MonthlyIncome <= 106255.0\ngini = 0.287\nsamples = 69\nvalue = [12, 57]"] ;
14 -> 15 ;
16 [label="Age <= 18.5\ngini = 0.168\nsamples = 54\nvalue = [5, 49]"] ;
15 -> 16 ;
17 [label="DistanceFromHome <= 4.0\ngini = 0.486\nsamples = 12\nvalue = [5, 7]"] ;
16 -> 17 ;
18 [label="PercentSalaryHike <= 20.0\ngini = 0.219\nsamples = 8\nvalue = [1, 7]"] ;
17 -> 18 ;
19 [label="gini = 0.0\nsamples = 7\nvalue = [0, 7]"] ;
18 -> 19 ;
20 [label="gini = 0.0\nsamples = 1\nvalue = [1, 0]"] ;
18 -> 20 ;
21 [label="gini = 0.0\nsamples = 4\nvalue = [4, 0]"] ;
17 -> 21 ;
22 [label="gini = 0.0\nsamples = 42\nvalue = [0, 42]"] ;
16 -> 22 ;
23 [label="MonthlyIncome <= 155870.0\ngini = 0.498\nsamples = 15\nvalue = [7, 8]"] ;
15 -> 23 ;
24 [label="JobRole <= 3.0\ngini = 0.346\nsamples = 9\nvalue = [7, 2]"] ;
23 -> 24 ;
25 [label="gini = 0.0\nsamples = 2\nvalue = [0, 2]"] ;
24 -> 25 ;
26 [label="gini = 0.0\nsamples = 7\nvalue = [7, 0]"] ;
24 -> 26 ;
27 [label="gini = 0.0\nsamples = 6\nvalue = [0, 6]"] ;
23 -> 27 ;
28 [label="MonthlyIncome <= 32530.0\ngini = 0.477\nsamples = 84\nvalue = [33, 51]"] ;
14 -> 28 ;
29 [label="PercentSalaryHike <= 23.5\ngini = 0.271\nsamples = 31\nvalue = [5, 26]"] ;
28 -> 29 ;
30 [label="EducationField <= 4.0\ngini = 0.133\nsamples = 28\nvalue = [2, 26]"] ;
29 -> 30 ;
31 [label="gini = 0.0\nsamples = 26\nvalue = [0, 26]"] ;
30 -> 31 ;
32 [label="gini = 0.0\nsamples = 2\nvalue = [2, 0]"] ;
30 -> 32 ;
33 [label="gini = 0.0\nsamples = 3\nvalue = [3, 0]"] ;
29 -> 33 ;
34 [label="MonthlyIncome <= 60740.0\ngini = 0.498\nsamples = 53\nvalue = [28, 25]"] ;
28 -> 34 ;
35 [label="DistanceFromHome <= 11.5\ngini = 0.393\nsamples = 26\nvalue = [19, 7]"] ;
34 -> 35 ;
36 [label="gini = 0.0\nsamples = 19\nvalue = [19, 0]"] ;
35 -> 36 ;
37 [label="gini = 0.0\nsamples = 7\nvalue = [0, 7]"] ;
35 -> 37 ;
38 [label="DistanceFromHome <= 23.0\ngini = 0.444\nsamples = 27\nvalue = [9, 18]"] ;
34 -> 38 ;
39 [label="DistanceFromHome <= 1.5\ngini = 0.34\nsamples = 23\nvalue = [5, 18]"] ;
38 -> 39 ;
40 [label="YearsSinceLastPromotion <= 0.5\ngini = 0.469\nsamples = 8\nvalue = [5, 3]"] ;
39 -> 40 ;
41 [label="gini = 0.0\nsamples = 5\nvalue = [5, 0]"] ;
40 -> 41 ;
42 [label="gini = 0.0\nsamples = 3\nvalue = [0, 3]"] ;
40 -> 42 ;
43 [label="gini = 0.0\nsamples = 15\nvalue = [0, 15]"] ;
39 -> 43 ;
44 [label="gini = 0.0\nsamples = 4\nvalue = [4, 0]"] ;
38 -> 44 ;
45 [label="JobRole <= 4.5\ngini = 0.48\nsamples = 40\nvalue = [24, 16]"] ;
13 -> 45 ;
46 [label="gini = 0.0\nsamples = 10\nvalue = [10, 0]"] ;
45 -> 46 ;
47 [label="EducationField <= 1.5\ngini = 0.498\nsamples = 30\nvalue = [14, 16]"] ;
45 -> 47 ;
48 [label="gini = 0.0\nsamples = 7\nvalue = [7, 0]"] ;
47 -> 48 ;
49 [label="TrainingTimesLastYear <= 3.5\ngini = 0.423\nsamples = 23\nvalue = [7, 16]"] ;
47 -> 49 ;
50 [label="DistanceFromHome <= 13.0\ngini = 0.305\nsamples = 16\nvalue = [3, 13]"] ;
49 -> 50 ;
51 [label="gini = 0.0\nsamples = 10\nvalue = [0, 10]"] ;
50 -> 51 ;
52 [label="MonthlyIncome <= 45400.0\ngini = 0.5\nsamples = 6\nvalue = [3, 3]"] ;
50 -> 52 ;
53 [label="gini = 0.0\nsamples = 3\nvalue = [3, 0]"] ;
52 -> 53 ;
54 [label="gini = 0.0\nsamples = 3\nvalue = [0, 3]"] ;
52 -> 54 ;
55 [label="TrainingTimesLastYear <= 5.5\ngini = 0.49\nsamples = 7\nvalue = [4, 3]"] ;
49 -> 55 ;
56 [label="gini = 0.0\nsamples = 4\nvalue = [4, 0]"] ;
55 -> 56 ;
57 [label="gini = 0.0\nsamples = 3\nvalue = [0, 3]"] ;
55 -> 57 ;
58 [label="PercentSalaryHike <= 17.5\ngini = 0.424\nsamples = 36\nvalue = [25, 11]"] ;
12 -> 58 ;
59 [label="MonthlyIncome <= 27175.0\ngini = 0.278\nsamples = 30\nvalue = [25, 5]"] ;
58 -> 59 ;
60 [label="TrainingTimesLastYear <= 3.5\ngini = 0.408\nsamples = 7\nvalue = [2, 5]"] ;
59 -> 60 ;
61 [label="gini = 0.0\nsamples = 5\nvalue = [0, 5]"] ;
60 -> 61 ;
62 [label="gini = 0.0\nsamples = 2\nvalue = [2, 0]"] ;
60 -> 62 ;
63 [label="gini = 0.0\nsamples = 23\nvalue = [23, 0]"] ;
59 -> 63 ;
64 [label="gini = 0.0\nsamples = 6\nvalue = [0, 6]"] ;
58 -> 64 ;
65 [label="gini = 0.0\nsamples = 17\nvalue = [17, 0]"] ;
3 -> 65 ;
66 [label="NumCompaniesWorked <= 4.5\ngini = 0.234\nsamples = 2997\nvalue = [2592, 405]"] ;
0 -> 66 [labeldistance=2.5, labelangle=-45, headlabel="False"] ;
67 [label="YearsWithCurrManager <= 0.5\ngini = 0.195\nsamples = 2298\nvalue = [2047, 251]"] ;
66 -> 67 ;
68 [label="MonthlyIncome <= 34305.0\ngini = 0.327\nsamples = 253\nvalue = [201, 52]"] ;
67 -> 68 ;
69 [label="DistanceFromHome <= 22.5\ngini = 0.11\nsamples = 86\nvalue = [81, 5]"] ;
68 -> 69 ;
70 [label="TotalWorkingYears <= 5.5\ngini = 0.048\nsamples = 81\nvalue = [79, 2]"] ;
69 -> 70 ;
71 [label="TrainingTimesLastYear <= 4.0\ngini = 0.298\nsamples = 11\nvalue = [9, 2]"] ;
70 -> 71 ;
72 [label="Age <= 49.0\ngini = 0.18\nsamples = 10\nvalue = [9, 1]"] ;
71 -> 72 ;
73 [label="gini = 0.0\nsamples = 9\nvalue = [9, 0]"] ;
72 -> 73 ;
74 [label="gini = 0.0\nsamples = 1\nvalue = [0, 1]"] ;
72 -> 74 ;
75 [label="gini = 0.0\nsamples = 1\nvalue = [0, 1]"] ;
71 -> 75 ;
76 [label="gini = 0.0\nsamples = 70\nvalue = [70, 0]"] ;
70 -> 76 ;
77 [label="DistanceFromHome <= 25.0\ngini = 0.48\nsamples = 5\nvalue = [2, 3]"] ;
69 -> 77 ;
78 [label="gini = 0.0\nsamples = 3\nvalue = [0, 3]"] ;
77 -> 78 ;
79 [label="gini = 0.0\nsamples = 2\nvalue = [2, 0]"] ;
77 -> 79 ;
80 [label="MonthlyIncome <= 36770.0\ngini = 0.404\nsamples = 167\nvalue = [120, 47]"] ;
68 -> 80 ;
81 [label="gini = 0.0\nsamples = 6\nvalue = [0, 6]"] ;
80 -> 81 ;
82 [label="TrainingTimesLastYear <= 1.5\ngini = 0.38\nsamples = 161\nvalue = [120, 41]"] ;
80 -> 82 ;
83 [label="MonthlyIncome <= 73030.0\ngini = 0.459\nsamples = 14\nvalue = [5, 9]"] ;
82 -> 83 ;
84 [label="gini = 0.0\nsamples = 7\nvalue = [0, 7]"] ;
83 -> 84 ;
85 [label="YearsSinceLastPromotion <= 1.0\ngini = 0.408\nsamples = 7\nvalue = [5, 2]"] ;
83 -> 85 ;
86 [label="gini = 0.0\nsamples = 5\nvalue = [5, 0]"] ;
85 -> 86 ;
87 [label="gini = 0.0\nsamples = 2\nvalue = [0, 2]"] ;
85 -> 87 ;
88 [label="Age <= 34.5\ngini = 0.341\nsamples = 147\nvalue = [115, 32]"] ;
82 -> 88 ;
89 [label="JobRole <= 5.5\ngini = 0.489\nsamples = 47\nvalue = [27, 20]"] ;
88 -> 89 ;
90 [label="EducationField <= 0.5\ngini = 0.245\nsamples = 28\nvalue = [24, 4]"] ;
89 -> 90 ;
91 [label="gini = 0.0\nsamples = 3\nvalue = [0, 3]"] ;
90 -> 91 ;
92 [label="YearsAtCompany <= 6.5\ngini = 0.077\nsamples = 25\nvalue = [24, 1]"] ;
90 -> 92 ;
93 [label="gini = 0.0\nsamples = 22\nvalue = [22, 0]"] ;
92 -> 93 ;
94 [label="TotalWorkingYears <= 9.0\ngini = 0.444\nsamples = 3\nvalue = [2, 1]"] ;
92 -> 94 ;
95 [label="gini = 0.0\nsamples = 1\nvalue = [0, 1]"] ;
94 -> 95 ;
96 [label="gini = 0.0\nsamples = 2\nvalue = [2, 0]"] ;
94 -> 96 ;
97 [label="TotalWorkingYears <= 13.0\ngini = 0.266\nsamples = 19\nvalue = [3, 16]"] ;
89 -> 97 ;
98 [label="PercentSalaryHike <= 20.5\ngini = 0.111\nsamples = 17\nvalue = [1, 16]"] ;
97 -> 98 ;
99 [label="gini = 0.0\nsamples = 16\nvalue = [0, 16]"] ;
98 -> 99 ;
100 [label="gini = 0.0\nsamples = 1\nvalue = [1, 0]"] ;
98 -> 100 ;
101 [label="gini = 0.0\nsamples = 2\nvalue = [2, 0]"] ;
97 -> 101 ;
102 [label="EducationField <= 2.5\ngini = 0.211\nsamples = 100\nvalue = [88, 12]"] ;
88 -> 102 ;
103 [label="JobRole <= 1.5\ngini = 0.041\nsamples = 48\nvalue = [47, 1]"] ;
102 -> 103 ;
104 [label="TrainingTimesLastYear <= 2.5\ngini = 0.375\nsamples = 4\nvalue = [3, 1]"] ;
103 -> 104 ;
105 [label="gini = 0.0\nsamples = 1\nvalue = [0, 1]"] ;
104 -> 105 ;
106 [label="gini = 0.0\nsamples = 3\nvalue = [3, 0]"] ;
104 -> 106 ;
107 [label="gini = 0.0\nsamples = 44\nvalue = [44, 0]"] ;
103 -> 107 ;
108 [label="NumCompaniesWorked <= 2.5\ngini = 0.334\nsamples = 52\nvalue = [41, 11]"] ;
102 -> 108 ;
109 [label="PercentSalaryHike <= 19.0\ngini = 0.08\nsamples = 24\nvalue = [23, 1]"] ;
108 -> 109 ;
110 [label="gini = 0.0\nsamples = 23\nvalue = [23, 0]"] ;
109 -> 110 ;
111 [label="gini = 0.0\nsamples = 1\nvalue = [0, 1]"] ;
109 -> 111 ;
112 [label="PercentSalaryHike <= 15.5\ngini = 0.459\nsamples = 28\nvalue = [18, 10]"] ;
108 -> 112 ;
113 [label="PercentSalaryHike <= 13.5\ngini = 0.484\nsamples = 17\nvalue = [7, 10]"] ;
112 -> 113 ;
114 [label="gini = 0.0\nsamples = 5\nvalue = [5, 0]"] ;
113 -> 114 ;
115 [label="EducationField <= 4.0\ngini = 0.278\nsamples = 12\nvalue = [2, 10]"] ;
113 -> 115 ;
116 [label="gini = 0.0\nsamples = 10\nvalue = [0, 10]"] ;
115 -> 116 ;
117 [label="gini = 0.0\nsamples = 2\nvalue = [2, 0]"] ;
115 -> 117 ;
118 [label="gini = 0.0\nsamples = 11\nvalue = [11, 0]"] ;
112 -> 118 ;
119 [label="YearsSinceLastPromotion <= 5.5\ngini = 0.176\nsamples = 2045\nvalue = [1846, 199]"] ;
67 -> 119 ;
120 [label="EducationField <= 0.5\ngini = 0.147\nsamples = 1659\nvalue = [1526, 133]"] ;
119 -> 120 ;
121 [label="Age <= 41.0\ngini = 0.48\nsamples = 25\nvalue = [15, 10]"] ;
120 -> 121 ;
122 [label="NumCompaniesWorked <= 3.5\ngini = 0.332\nsamples = 19\nvalue = [15, 4]"] ;
121 -> 122 ;
123 [label="YearsSinceLastPromotion <= 3.5\ngini = 0.208\nsamples = 17\nvalue = [15, 2]"] ;
122 -> 123 ;
124 [label="gini = 0.0\nsamples = 15\nvalue = [15, 0]"] ;
123 -> 124 ;
125 [label="gini = 0.0\nsamples = 2\nvalue = [0, 2]"] ;
123 -> 125 ;
126 [label="gini = 0.0\nsamples = 2\nvalue = [0, 2]"] ;
122 -> 126 ;
127 [label="gini = 0.0\nsamples = 6\nvalue = [0, 6]"] ;
121 -> 127 ;
128 [label="YearsAtCompany <= 4.5\ngini = 0.139\nsamples = 1634\nvalue = [1511, 123]"] ;
120 -> 128 ;
129 [label="MonthlyIncome <= 178680.0\ngini = 0.222\nsamples = 480\nvalue = [419, 61]"] ;
128 -> 129 ;
130 [label="TrainingTimesLastYear <= 2.5\ngini = 0.192\nsamples = 447\nvalue = [399, 48]"] ;
129 -> 130 ;
131 [label="MonthlyIncome <= 84815.0\ngini = 0.283\nsamples = 205\nvalue = [170, 35]"] ;
130 -> 131 ;
132 [label="PercentSalaryHike <= 11.5\ngini = 0.328\nsamples = 169\nvalue = [134, 35]"] ;
131 -> 132 ;
133 [label="EducationField <= 2.0\ngini = 0.444\nsamples = 12\nvalue = [4, 8]"] ;
132 -> 133 ;
134 [label="gini = 0.0\nsamples = 8\nvalue = [0, 8]"] ;
133 -> 134 ;
135 [label="gini = 0.0\nsamples = 4\nvalue = [4, 0]"] ;
133 -> 135 ;
136 [label="MonthlyIncome <= 81715.0\ngini = 0.285\nsamples = 157\nvalue = [130, 27]"] ;
132 -> 136 ;
137 [label="TotalWorkingYears <= 5.5\ngini = 0.271\nsamples = 155\nvalue = [130, 25]"] ;
136 -> 137 ;
138 [label="NumCompaniesWorked <= 2.0\ngini = 0.385\nsamples = 73\nvalue = [54, 19]"] ;
137 -> 138 ;
139 [label="MonthlyIncome <= 62660.0\ngini = 0.34\nsamples = 69\nvalue = [54, 15]"] ;
138 -> 139 ;
140 [label="MonthlyIncome <= 26465.0\ngini = 0.274\nsamples = 61\nvalue = [51, 10]"] ;
139 -> 140 ;
141 [label="DistanceFromHome <= 5.0\ngini = 0.492\nsamples = 16\nvalue = [9, 7]"] ;
140 -> 141 ;
142 [label="gini = 0.0\nsamples = 7\nvalue = [7, 0]"] ;
141 -> 142 ;
143 [label="JobRole <= 6.5\ngini = 0.346\nsamples = 9\nvalue = [2, 7]"] ;
141 -> 143 ;
144 [label="gini = 0.0\nsamples = 7\nvalue = [0, 7]"] ;
143 -> 144 ;
145 [label="gini = 0.0\nsamples = 2\nvalue = [2, 0]"] ;
143 -> 145 ;
146 [label="PercentSalaryHike <= 23.5\ngini = 0.124\nsamples = 45\nvalue = [42, 3]"] ;
140 -> 146 ;
147 [label="gini = 0.0\nsamples = 42\nvalue = [42, 0]"] ;
146 -> 147 ;
148 [label="gini = 0.0\nsamples = 3\nvalue = [0, 3]"] ;
146 -> 148 ;
149 [label="MonthlyIncome <= 75750.0\ngini = 0.469\nsamples = 8\nvalue = [3, 5]"] ;
139 -> 149 ;
150 [label="gini = 0.0\nsamples = 5\nvalue = [0, 5]"] ;
149 -> 150 ;
151 [label="gini = 0.0\nsamples = 3\nvalue = [3, 0]"] ;
149 -> 151 ;
152 [label="gini = 0.0\nsamples = 4\nvalue = [0, 4]"] ;
138 -> 152 ;
153 [label="JobRole <= 7.5\ngini = 0.136\nsamples = 82\nvalue = [76, 6]"] ;
137 -> 153 ;
154 [label="YearsWithCurrManager <= 2.5\ngini = 0.095\nsamples = 80\nvalue = [76, 4]"] ;
153 -> 154 ;
155 [label="gini = 0.0\nsamples = 56\nvalue = [56, 0]"] ;
154 -> 155 ;
156 [label="TotalWorkingYears <= 17.5\ngini = 0.278\nsamples = 24\nvalue = [20, 4]"] ;
154 -> 156 ;
157 [label="TrainingTimesLastYear <= 1.0\ngini = 0.095\nsamples = 20\nvalue = [19, 1]"] ;
156 -> 157 ;
158 [label="gini = 0.0\nsamples = 1\nvalue = [0, 1]"] ;
157 -> 158 ;
159 [label="gini = 0.0\nsamples = 19\nvalue = [19, 0]"] ;
157 -> 159 ;
160 [label="JobRole <= 3.0\ngini = 0.375\nsamples = 4\nvalue = [1, 3]"] ;
156 -> 160 ;
161 [label="gini = 0.0\nsamples = 3\nvalue = [0, 3]"] ;
160 -> 161 ;
162 [label="gini = 0.0\nsamples = 1\nvalue = [1, 0]"] ;
160 -> 162 ;
163 [label="gini = 0.0\nsamples = 2\nvalue = [0, 2]"] ;
153 -> 163 ;
164 [label="gini = 0.0\nsamples = 2\nvalue = [0, 2]"] ;
136 -> 164 ;
165 [label="gini = 0.0\nsamples = 36\nvalue = [36, 0]"] ;
131 -> 165 ;
166 [label="YearsAtCompany <= 1.5\ngini = 0.102\nsamples = 242\nvalue = [229, 13]"] ;
130 -> 166 ;
167 [label="Age <= 36.0\ngini = 0.469\nsamples = 8\nvalue = [5, 3]"] ;
166 -> 167 ;
168 [label="gini = 0.0\nsamples = 3\nvalue = [0, 3]"] ;
167 -> 168 ;
169 [label="gini = 0.0\nsamples = 5\nvalue = [5, 0]"] ;
167 -> 169 ;
170 [label="Age <= 22.5\ngini = 0.082\nsamples = 234\nvalue = [224, 10]"] ;
166 -> 170 ;
171 [label="YearsSinceLastPromotion <= 0.5\ngini = 0.444\nsamples = 6\nvalue = [4, 2]"] ;
170 -> 171 ;
172 [label="gini = 0.0\nsamples = 2\nvalue = [0, 2]"] ;
171 -> 172 ;
173 [label="gini = 0.0\nsamples = 4\nvalue = [4, 0]"] ;
171 -> 173 ;
174 [label="DistanceFromHome <= 4.5\ngini = 0.068\nsamples = 228\nvalue = [220, 8]"] ;
170 -> 174 ;
175 [label="Age <= 31.5\ngini = 0.162\nsamples = 79\nvalue = [72, 7]"] ;
174 -> 175 ;
176 [label="MonthlyIncome <= 62155.0\ngini = 0.393\nsamples = 26\nvalue = [19, 7]"] ;
175 -> 176 ;
177 [label="NumCompaniesWorked <= 2.5\ngini = 0.188\nsamples = 19\nvalue = [17, 2]"] ;
176 -> 177 ;
178 [label="gini = 0.0\nsamples = 15\nvalue = [15, 0]"] ;
177 -> 178 ;
179 [label="DistanceFromHome <= 1.5\ngini = 0.5\nsamples = 4\nvalue = [2, 2]"] ;
177 -> 179 ;
180 [label="gini = 0.0\nsamples = 2\nvalue = [2, 0]"] ;
179 -> 180 ;
181 [label="gini = 0.0\nsamples = 2\nvalue = [0, 2]"] ;
179 -> 181 ;
182 [label="MonthlyIncome <= 73705.0\ngini = 0.408\nsamples = 7\nvalue = [2, 5]"] ;
176 -> 182 ;
183 [label="gini = 0.0\nsamples = 5\nvalue = [0, 5]"] ;
182 -> 183 ;
184 [label="gini = 0.0\nsamples = 2\nvalue = [2, 0]"] ;
182 -> 184 ;
185 [label="gini = 0.0\nsamples = 53\nvalue = [53, 0]"] ;
175 -> 185 ;
186 [label="Age <= 49.5\ngini = 0.013\nsamples = 149\nvalue = [148, 1]"] ;
174 -> 186 ;
187 [label="gini = 0.0\nsamples = 137\nvalue = [137, 0]"] ;
186 -> 187 ;
188 [label="TotalWorkingYears <= 3.5\ngini = 0.153\nsamples = 12\nvalue = [11, 1]"] ;
186 -> 188 ;
189 [label="gini = 0.0\nsamples = 1\nvalue = [0, 1]"] ;
188 -> 189 ;
190 [label="gini = 0.0\nsamples = 11\nvalue = [11, 0]"] ;
188 -> 190 ;
191 [label="DistanceFromHome <= 5.0\ngini = 0.478\nsamples = 33\nvalue = [20, 13]"] ;
129 -> 191 ;
192 [label="gini = 0.0\nsamples = 10\nvalue = [10, 0]"] ;
191 -> 192 ;
193 [label="Age <= 38.0\ngini = 0.491\nsamples = 23\nvalue = [10, 13]"] ;
191 -> 193 ;
194 [label="TrainingTimesLastYear <= 4.5\ngini = 0.401\nsamples = 18\nvalue = [5, 13]"] ;
193 -> 194 ;
195 [label="gini = 0.0\nsamples = 11\nvalue = [0, 11]"] ;
194 -> 195 ;
196 [label="MonthlyIncome <= 185385.0\ngini = 0.408\nsamples = 7\nvalue = [5, 2]"] ;
194 -> 196 ;
197 [label="gini = 0.0\nsamples = 2\nvalue = [0, 2]"] ;
196 -> 197 ;
198 [label="gini = 0.0\nsamples = 5\nvalue = [5, 0]"] ;
196 -> 198 ;
199 [label="gini = 0.0\nsamples = 5\nvalue = [5, 0]"] ;
193 -> 199 ;
200 [label="Age <= 26.5\ngini = 0.102\nsamples = 1154\nvalue = [1092, 62]"] ;
128 -> 200 ;
201 [label="TrainingTimesLastYear <= 0.5\ngini = 0.283\nsamples = 88\nvalue = [73, 15]"] ;
200 -> 201 ;
202 [label="gini = 0.0\nsamples = 2\nvalue = [0, 2]"] ;
201 -> 202 ;
203 [label="MonthlyIncome <= 93420.0\ngini = 0.257\nsamples = 86\nvalue = [73, 13]"] ;
201 -> 203 ;
204 [label="MonthlyIncome <= 74970.0\ngini = 0.348\nsamples = 58\nvalue = [45, 13]"] ;
203 -> 204 ;
205 [label="EducationField <= 4.5\ngini = 0.256\nsamples = 53\nvalue = [45, 8]"] ;
204 -> 205 ;
206 [label="PercentSalaryHike <= 22.5\ngini = 0.18\nsamples = 50\nvalue = [45, 5]"] ;
205 -> 206 ;
207 [label="Age <= 23.5\ngini = 0.117\nsamples = 48\nvalue = [45, 3]"] ;
206 -> 207 ;
208 [label="gini = 0.0\nsamples = 2\nvalue = [0, 2]"] ;
207 -> 208 ;
209 [label="PercentSalaryHike <= 20.0\ngini = 0.043\nsamples = 46\nvalue = [45, 1]"] ;
207 -> 209 ;
210 [label="gini = 0.0\nsamples = 37\nvalue = [37, 0]"] ;
209 -> 210 ;
211 [label="YearsWithCurrManager <= 2.5\ngini = 0.198\nsamples = 9\nvalue = [8, 1]"] ;
209 -> 211 ;
212 [label="gini = 0.0\nsamples = 1\nvalue = [0, 1]"] ;
211 -> 212 ;
213 [label="gini = 0.0\nsamples = 8\nvalue = [8, 0]"] ;
211 -> 213 ;
214 [label="gini = 0.0\nsamples = 2\nvalue = [0, 2]"] ;
206 -> 214 ;
215 [label="gini = 0.0\nsamples = 3\nvalue = [0, 3]"] ;
205 -> 215 ;
216 [label="gini = 0.0\nsamples = 5\nvalue = [0, 5]"] ;
204 -> 216 ;
217 [label="gini = 0.0\nsamples = 28\nvalue = [28, 0]"] ;
203 -> 217 ;
218 [label="PercentSalaryHike <= 18.5\ngini = 0.084\nsamples = 1066\nvalue = [1019, 47]"] ;
200 -> 218 ;
219 [label="JobRole <= 6.5\ngini = 0.063\nsamples = 862\nvalue = [834, 28]"] ;
218 -> 219 ;
220 [label="NumCompaniesWorked <= 3.5\ngini = 0.035\nsamples = 617\nvalue = [606, 11]"] ;
219 -> 220 ;
221 [label="DistanceFromHome <= 18.5\ngini = 0.022\nsamples = 545\nvalue = [539, 6]"] ;
220 -> 221 ;
222 [label="MonthlyIncome <= 28500.0\ngini = 0.004\nsamples = 461\nvalue = [460, 1]"] ;
221 -> 222 ;
223 [label="MonthlyIncome <= 28405.0\ngini = 0.024\nsamples = 84\nvalue = [83, 1]"] ;
222 -> 223 ;
224 [label="gini = 0.0\nsamples = 83\nvalue = [83, 0]"] ;
223 -> 224 ;
225 [label="gini = 0.0\nsamples = 1\nvalue = [0, 1]"] ;
223 -> 225 ;
226 [label="gini = 0.0\nsamples = 377\nvalue = [377, 0]"] ;
222 -> 226 ;
227 [label="Age <= 29.5\ngini = 0.112\nsamples = 84\nvalue = [79, 5]"] ;
221 -> 227 ;
228 [label="TrainingTimesLastYear <= 3.5\ngini = 0.444\nsamples = 15\nvalue = [10, 5]"] ;
227 -> 228 ;
229 [label="TrainingTimesLastYear <= 1.0\ngini = 0.278\nsamples = 12\nvalue = [10, 2]"] ;
228 -> 229 ;
230 [label="gini = 0.0\nsamples = 2\nvalue = [0, 2]"] ;
229 -> 230 ;
231 [label="gini = 0.0\nsamples = 10\nvalue = [10, 0]"] ;
229 -> 231 ;
232 [label="gini = 0.0\nsamples = 3\nvalue = [0, 3]"] ;
228 -> 232 ;
233 [label="gini = 0.0\nsamples = 69\nvalue = [69, 0]"] ;
227 -> 233 ;
234 [label="TotalWorkingYears <= 8.5\ngini = 0.129\nsamples = 72\nvalue = [67, 5]"] ;
220 -> 234 ;
235 [label="JobRole <= 2.5\ngini = 0.48\nsamples = 10\nvalue = [6, 4]"] ;
234 -> 235 ;
236 [label="Age <= 33.0\ngini = 0.375\nsamples = 8\nvalue = [6, 2]"] ;
235 -> 236 ;
237 [label="gini = 0.0\nsamples = 2\nvalue = [0, 2]"] ;
236 -> 237 ;
238 [label="gini = 0.0\nsamples = 6\nvalue = [6, 0]"] ;
236 -> 238 ;
239 [label="gini = 0.0\nsamples = 2\nvalue = [0, 2]"] ;
235 -> 239 ;
240 [label="TotalWorkingYears <= 27.0\ngini = 0.032\nsamples = 62\nvalue = [61, 1]"] ;
234 -> 240 ;
241 [label="gini = 0.0\nsamples = 57\nvalue = [57, 0]"] ;
240 -> 241 ;
242 [label="TrainingTimesLastYear <= 2.5\ngini = 0.32\nsamples = 5\nvalue = [4, 1]"] ;
240 -> 242 ;
243 [label="gini = 0.0\nsamples = 1\nvalue = [0, 1]"] ;
242 -> 243 ;
244 [label="gini = 0.0\nsamples = 4\nvalue = [4, 0]"] ;
242 -> 244 ;
245 [label="Age <= 34.5\ngini = 0.129\nsamples = 245\nvalue = [228, 17]"] ;
219 -> 245 ;
246 [label="DistanceFromHome <= 6.5\ngini = 0.243\nsamples = 99\nvalue = [85, 14]"] ;
245 -> 246 ;
247 [label="EducationField <= 3.5\ngini = 0.444\nsamples = 42\nvalue = [28, 14]"] ;
246 -> 247 ;
248 [label="DistanceFromHome <= 3.5\ngini = 0.368\nsamples = 37\nvalue = [28, 9]"] ;
247 -> 248 ;
249 [label="NumCompaniesWorked <= 0.5\ngini = 0.271\nsamples = 31\nvalue = [26, 5]"] ;
248 -> 249 ;
250 [label="TrainingTimesLastYear <= 3.5\ngini = 0.48\nsamples = 5\nvalue = [2, 3]"] ;
249 -> 250 ;
251 [label="gini = 0.0\nsamples = 3\nvalue = [0, 3]"] ;
250 -> 251 ;
252 [label="gini = 0.0\nsamples = 2\nvalue = [2, 0]"] ;
250 -> 252 ;
253 [label="YearsSinceLastPromotion <= 3.0\ngini = 0.142\nsamples = 26\nvalue = [24, 2]"] ;
249 -> 253 ;
254 [label="gini = 0.0\nsamples = 19\nvalue = [19, 0]"] ;
253 -> 254 ;
255 [label="TotalWorkingYears <= 11.5\ngini = 0.408\nsamples = 7\nvalue = [5, 2]"] ;
253 -> 255 ;
256 [label="gini = 0.0\nsamples = 2\nvalue = [0, 2]"] ;
255 -> 256 ;
257 [label="gini = 0.0\nsamples = 5\nvalue = [5, 0]"] ;
255 -> 257 ;
258 [label="EducationField <= 2.0\ngini = 0.444\nsamples = 6\nvalue = [2, 4]"] ;
248 -> 258 ;
259 [label="gini = 0.0\nsamples = 4\nvalue = [0, 4]"] ;
258 -> 259 ;
260 [label="gini = 0.0\nsamples = 2\nvalue = [2, 0]"] ;
258 -> 260 ;
261 [label="gini = 0.0\nsamples = 5\nvalue = [0, 5]"] ;
247 -> 261 ;
262 [label="gini = 0.0\nsamples = 57\nvalue = [57, 0]"] ;
246 -> 262 ;
263 [label="MonthlyIncome <= 22990.0\ngini = 0.04\nsamples = 146\nvalue = [143, 3]"] ;
245 -> 263 ;
264 [label="MonthlyIncome <= 22030.0\ngini = 0.32\nsamples = 10\nvalue = [8, 2]"] ;
263 -> 264 ;
265 [label="gini = 0.0\nsamples = 8\nvalue = [8, 0]"] ;
264 -> 265 ;
266 [label="gini = 0.0\nsamples = 2\nvalue = [0, 2]"] ;
264 -> 266 ;
267 [label="NumCompaniesWorked <= 3.5\ngini = 0.015\nsamples = 136\nvalue = [135, 1]"] ;
263 -> 267 ;
268 [label="gini = 0.0\nsamples = 114\nvalue = [114, 0]"] ;
267 -> 268 ;
269 [label="YearsSinceLastPromotion <= 2.0\ngini = 0.087\nsamples = 22\nvalue = [21, 1]"] ;
267 -> 269 ;
270 [label="gini = 0.0\nsamples = 21\nvalue = [21, 0]"] ;
269 -> 270 ;
271 [label="gini = 0.0\nsamples = 1\nvalue = [0, 1]"] ;
269 -> 271 ;
272 [label="YearsAtCompany <= 27.5\ngini = 0.169\nsamples = 204\nvalue = [185, 19]"] ;
218 -> 272 ;
273 [label="MonthlyIncome <= 17915.0\ngini = 0.154\nsamples = 202\nvalue = [185, 17]"] ;
272 -> 273 ;
274 [label="JobRole <= 5.5\ngini = 0.444\nsamples = 3\nvalue = [1, 2]"] ;
273 -> 274 ;
275 [label="gini = 0.0\nsamples = 1\nvalue = [1, 0]"] ;
274 -> 275 ;
276 [label="gini = 0.0\nsamples = 2\nvalue = [0, 2]"] ;
274 -> 276 ;
277 [label="TrainingTimesLastYear <= 0.5\ngini = 0.139\nsamples = 199\nvalue = [184, 15]"] ;
273 -> 277 ;
278 [label="MonthlyIncome <= 63435.0\ngini = 0.5\nsamples = 4\nvalue = [2, 2]"] ;
277 -> 278 ;
279 [label="gini = 0.0\nsamples = 2\nvalue = [2, 0]"] ;
278 -> 279 ;
280 [label="gini = 0.0\nsamples = 2\nvalue = [0, 2]"] ;
278 -> 280 ;
281 [label="EducationField <= 1.5\ngini = 0.124\nsamples = 195\nvalue = [182, 13]"] ;
277 -> 281 ;
282 [label="NumCompaniesWorked <= 0.5\ngini = 0.23\nsamples = 83\nvalue = [72, 11]"] ;
281 -> 282 ;
283 [label="MonthlyIncome <= 61190.0\ngini = 0.492\nsamples = 16\nvalue = [9, 7]"] ;
282 -> 283 ;
284 [label="gini = 0.0\nsamples = 7\nvalue = [0, 7]"] ;
283 -> 284 ;
285 [label="gini = 0.0\nsamples = 9\nvalue = [9, 0]"] ;
283 -> 285 ;
286 [label="MonthlyIncome <= 60120.0\ngini = 0.112\nsamples = 67\nvalue = [63, 4]"] ;
282 -> 286 ;
287 [label="gini = 0.0\nsamples = 41\nvalue = [41, 0]"] ;
286 -> 287 ;
288 [label="MonthlyIncome <= 62830.0\ngini = 0.26\nsamples = 26\nvalue = [22, 4]"] ;
286 -> 288 ;
289 [label="gini = 0.0\nsamples = 3\nvalue = [0, 3]"] ;
288 -> 289 ;
290 [label="NumCompaniesWorked <= 3.5\ngini = 0.083\nsamples = 23\nvalue = [22, 1]"] ;
288 -> 290 ;
291 [label="gini = 0.0\nsamples = 20\nvalue = [20, 0]"] ;
290 -> 291 ;
292 [label="YearsAtCompany <= 10.0\ngini = 0.444\nsamples = 3\nvalue = [2, 1]"] ;
290 -> 292 ;
293 [label="gini = 0.0\nsamples = 1\nvalue = [0, 1]"] ;
292 -> 293 ;
294 [label="gini = 0.0\nsamples = 2\nvalue = [2, 0]"] ;
292 -> 294 ;
295 [label="NumCompaniesWorked <= 3.5\ngini = 0.035\nsamples = 112\nvalue = [110, 2]"] ;
281 -> 295 ;
296 [label="gini = 0.0\nsamples = 103\nvalue = [103, 0]"] ;
295 -> 296 ;
297 [label="TrainingTimesLastYear <= 2.5\ngini = 0.346\nsamples = 9\nvalue = [7, 2]"] ;
295 -> 297 ;
298 [label="gini = 0.0\nsamples = 7\nvalue = [7, 0]"] ;
297 -> 298 ;
299 [label="gini = 0.0\nsamples = 2\nvalue = [0, 2]"] ;
297 -> 299 ;
300 [label="gini = 0.0\nsamples = 2\nvalue = [0, 2]"] ;
272 -> 300 ;
301 [label="Age <= 35.5\ngini = 0.283\nsamples = 386\nvalue = [320, 66]"] ;
119 -> 301 ;
302 [label="YearsSinceLastPromotion <= 7.5\ngini = 0.412\nsamples = 131\nvalue = [93, 38]"] ;
301 -> 302 ;
303 [label="MonthlyIncome <= 137170.0\ngini = 0.465\nsamples = 87\nvalue = [55, 32]"] ;
302 -> 303 ;
304 [label="YearsAtCompany <= 9.5\ngini = 0.417\nsamples = 71\nvalue = [50, 21]"] ;
303 -> 304 ;
305 [label="DistanceFromHome <= 28.5\ngini = 0.278\nsamples = 48\nvalue = [40, 8]"] ;
304 -> 305 ;
306 [label="DistanceFromHome <= 4.0\ngini = 0.165\nsamples = 44\nvalue = [40, 4]"] ;
305 -> 306 ;
307 [label="DistanceFromHome <= 1.5\ngini = 0.36\nsamples = 17\nvalue = [13, 4]"] ;
306 -> 307 ;
308 [label="gini = 0.0\nsamples = 10\nvalue = [10, 0]"] ;
307 -> 308 ;
309 [label="EducationField <= 1.5\ngini = 0.49\nsamples = 7\nvalue = [3, 4]"] ;
307 -> 309 ;
310 [label="gini = 0.0\nsamples = 3\nvalue = [3, 0]"] ;
309 -> 310 ;
311 [label="gini = 0.0\nsamples = 4\nvalue = [0, 4]"] ;
309 -> 311 ;
312 [label="gini = 0.0\nsamples = 27\nvalue = [27, 0]"] ;
306 -> 312 ;
313 [label="gini = 0.0\nsamples = 4\nvalue = [0, 4]"] ;
305 -> 313 ;
314 [label="YearsWithCurrManager <= 8.5\ngini = 0.491\nsamples = 23\nvalue = [10, 13]"] ;
304 -> 314 ;
315 [label="MonthlyIncome <= 64375.0\ngini = 0.133\nsamples = 14\nvalue = [1, 13]"] ;
314 -> 315 ;
316 [label="gini = 0.0\nsamples = 13\nvalue = [0, 13]"] ;
315 -> 316 ;
317 [label="gini = 0.0\nsamples = 1\nvalue = [1, 0]"] ;
315 -> 317 ;
318 [label="gini = 0.0\nsamples = 9\nvalue = [9, 0]"] ;
314 -> 318 ;
319 [label="TotalWorkingYears <= 11.0\ngini = 0.43\nsamples = 16\nvalue = [5, 11]"] ;
303 -> 319 ;
320 [label="gini = 0.0\nsamples = 11\nvalue = [0, 11]"] ;
319 -> 320 ;
321 [label="gini = 0.0\nsamples = 5\nvalue = [5, 0]"] ;
319 -> 321 ;
322 [label="TotalWorkingYears <= 13.5\ngini = 0.236\nsamples = 44\nvalue = [38, 6]"] ;
302 -> 322 ;
323 [label="PercentSalaryHike <= 11.5\ngini = 0.056\nsamples = 35\nvalue = [34, 1]"] ;
322 -> 323 ;
324 [label="YearsAtCompany <= 11.5\ngini = 0.375\nsamples = 4\nvalue = [3, 1]"] ;
323 -> 324 ;
325 [label="gini = 0.0\nsamples = 1\nvalue = [0, 1]"] ;
324 -> 325 ;
326 [label="gini = 0.0\nsamples = 3\nvalue = [3, 0]"] ;
324 -> 326 ;
327 [label="gini = 0.0\nsamples = 31\nvalue = [31, 0]"] ;
323 -> 327 ;
328 [label="TrainingTimesLastYear <= 2.5\ngini = 0.494\nsamples = 9\nvalue = [4, 5]"] ;
322 -> 328 ;
329 [label="YearsSinceLastPromotion <= 8.5\ngini = 0.278\nsamples = 6\nvalue = [1, 5]"] ;
328 -> 329 ;
330 [label="gini = 0.0\nsamples = 1\nvalue = [1, 0]"] ;
329 -> 330 ;
331 [label="gini = 0.0\nsamples = 5\nvalue = [0, 5]"] ;
329 -> 331 ;
332 [label="gini = 0.0\nsamples = 3\nvalue = [3, 0]"] ;
328 -> 332 ;
333 [label="TotalWorkingYears <= 38.5\ngini = 0.195\nsamples = 255\nvalue = [227, 28]"] ;
301 -> 333 ;
334 [label="Age <= 46.5\ngini = 0.179\nsamples = 252\nvalue = [227, 25]"] ;
333 -> 334 ;
335 [label="YearsSinceLastPromotion <= 14.5\ngini = 0.095\nsamples = 181\nvalue = [172, 9]"] ;
334 -> 335 ;
336 [label="YearsWithCurrManager <= 13.5\ngini = 0.046\nsamples = 171\nvalue = [167, 4]"] ;
335 -> 336 ;
337 [label="TotalWorkingYears <= 8.5\ngini = 0.013\nsamples = 157\nvalue = [156, 1]"] ;
336 -> 337 ;
338 [label="PercentSalaryHike <= 12.5\ngini = 0.153\nsamples = 12\nvalue = [11, 1]"] ;
337 -> 338 ;
339 [label="JobRole <= 4.5\ngini = 0.444\nsamples = 3\nvalue = [2, 1]"] ;
338 -> 339 ;
340 [label="gini = 0.0\nsamples = 2\nvalue = [2, 0]"] ;
339 -> 340 ;
341 [label="gini = 0.0\nsamples = 1\nvalue = [0, 1]"] ;
339 -> 341 ;
342 [label="gini = 0.0\nsamples = 9\nvalue = [9, 0]"] ;
338 -> 342 ;
343 [label="gini = 0.0\nsamples = 145\nvalue = [145, 0]"] ;
337 -> 343 ;
344 [label="YearsWithCurrManager <= 14.5\ngini = 0.337\nsamples = 14\nvalue = [11, 3]"] ;
336 -> 344 ;
345 [label="gini = 0.0\nsamples = 3\nvalue = [0, 3]"] ;
344 -> 345 ;
346 [label="gini = 0.0\nsamples = 11\nvalue = [11, 0]"] ;
344 -> 346 ;
347 [label="Age <= 42.0\ngini = 0.5\nsamples = 10\nvalue = [5, 5]"] ;
335 -> 347 ;
348 [label="gini = 0.0\nsamples = 5\nvalue = [0, 5]"] ;
347 -> 348 ;
349 [label="gini = 0.0\nsamples = 5\nvalue = [5, 0]"] ;
347 -> 349 ;
350 [label="JobRole <= 1.5\ngini = 0.349\nsamples = 71\nvalue = [55, 16]"] ;
334 -> 350 ;
351 [label="gini = 0.0\nsamples = 8\nvalue = [0, 8]"] ;
350 -> 351 ;
352 [label="TotalWorkingYears <= 13.0\ngini = 0.222\nsamples = 63\nvalue = [55, 8]"] ;
350 -> 352 ;
353 [label="NumCompaniesWorked <= 0.5\ngini = 0.473\nsamples = 13\nvalue = [5, 8]"] ;
352 -> 353 ;
354 [label="gini = 0.0\nsamples = 5\nvalue = [5, 0]"] ;
353 -> 354 ;
355 [label="gini = 0.0\nsamples = 8\nvalue = [0, 8]"] ;
353 -> 355 ;
356 [label="gini = 0.0\nsamples = 50\nvalue = [50, 0]"] ;
352 -> 356 ;
357 [label="gini = 0.0\nsamples = 3\nvalue = [0, 3]"] ;
333 -> 357 ;
358 [label="Age <= 33.5\ngini = 0.344\nsamples = 699\nvalue = [545, 154]"] ;
66 -> 358 ;
359 [label="NumCompaniesWorked <= 7.5\ngini = 0.478\nsamples = 190\nvalue = [115, 75]"] ;
358 -> 359 ;
360 [label="EducationField <= 3.5\ngini = 0.5\nsamples = 125\nvalue = [62, 63]"] ;
359 -> 360 ;
361 [label="YearsSinceLastPromotion <= 5.0\ngini = 0.491\nsamples = 111\nvalue = [48, 63]"] ;
360 -> 361 ;
362 [label="Age <= 27.5\ngini = 0.474\nsamples = 101\nvalue = [39, 62]"] ;
361 -> 362 ;
363 [label="YearsSinceLastPromotion <= 1.5\ngini = 0.435\nsamples = 25\nvalue = [17, 8]"] ;
362 -> 363 ;
364 [label="YearsSinceLastPromotion <= 0.5\ngini = 0.498\nsamples = 17\nvalue = [9, 8]"] ;
363 -> 364 ;
365 [label="MonthlyIncome <= 26765.0\ngini = 0.18\nsamples = 10\nvalue = [9, 1]"] ;
364 -> 365 ;
366 [label="gini = 0.0\nsamples = 1\nvalue = [0, 1]"] ;
365 -> 366 ;
367 [label="gini = 0.0\nsamples = 9\nvalue = [9, 0]"] ;
365 -> 367 ;
368 [label="gini = 0.0\nsamples = 7\nvalue = [0, 7]"] ;
364 -> 368 ;
369 [label="gini = 0.0\nsamples = 8\nvalue = [8, 0]"] ;
363 -> 369 ;
370 [label="TrainingTimesLastYear <= 4.5\ngini = 0.411\nsamples = 76\nvalue = [22, 54]"] ;
362 -> 370 ;
371 [label="Age <= 31.5\ngini = 0.346\nsamples = 63\nvalue = [14, 49]"] ;
370 -> 371 ;
372 [label="PercentSalaryHike <= 19.0\ngini = 0.184\nsamples = 39\nvalue = [4, 35]"] ;
371 -> 372 ;
373 [label="PercentSalaryHike <= 13.5\ngini = 0.102\nsamples = 37\nvalue = [2, 35]"] ;
372 -> 373 ;
374 [label="TrainingTimesLastYear <= 3.5\ngini = 0.245\nsamples = 14\nvalue = [2, 12]"] ;
373 -> 374 ;
375 [label="JobRole <= 1.0\ngini = 0.142\nsamples = 13\nvalue = [1, 12]"] ;
374 -> 375 ;
376 [label="gini = 0.0\nsamples = 1\nvalue = [1, 0]"] ;
375 -> 376 ;
377 [label="gini = 0.0\nsamples = 12\nvalue = [0, 12]"] ;
375 -> 377 ;
378 [label="gini = 0.0\nsamples = 1\nvalue = [1, 0]"] ;
374 -> 378 ;
379 [label="gini = 0.0\nsamples = 23\nvalue = [0, 23]"] ;
373 -> 379 ;
380 [label="gini = 0.0\nsamples = 2\nvalue = [2, 0]"] ;
372 -> 380 ;
381 [label="EducationField <= 1.5\ngini = 0.486\nsamples = 24\nvalue = [10, 14]"] ;
371 -> 381 ;
382 [label="gini = 0.0\nsamples = 7\nvalue = [0, 7]"] ;
381 -> 382 ;
383 [label="YearsAtCompany <= 2.5\ngini = 0.484\nsamples = 17\nvalue = [10, 7]"] ;
381 -> 383 ;
384 [label="gini = 0.0\nsamples = 5\nvalue = [0, 5]"] ;
383 -> 384 ;
385 [label="YearsWithCurrManager <= 3.5\ngini = 0.278\nsamples = 12\nvalue = [10, 2]"] ;
383 -> 385 ;
386 [label="gini = 0.0\nsamples = 10\nvalue = [10, 0]"] ;
385 -> 386 ;
387 [label="gini = 0.0\nsamples = 2\nvalue = [0, 2]"] ;
385 -> 387 ;
388 [label="PercentSalaryHike <= 22.0\ngini = 0.473\nsamples = 13\nvalue = [8, 5]"] ;
370 -> 388 ;
389 [label="gini = 0.0\nsamples = 8\nvalue = [8, 0]"] ;
388 -> 389 ;
390 [label="gini = 0.0\nsamples = 5\nvalue = [0, 5]"] ;
388 -> 390 ;
391 [label="YearsAtCompany <= 7.5\ngini = 0.18\nsamples = 10\nvalue = [9, 1]"] ;
361 -> 391 ;
392 [label="gini = 0.0\nsamples = 1\nvalue = [0, 1]"] ;
391 -> 392 ;
393 [label="gini = 0.0\nsamples = 9\nvalue = [9, 0]"] ;
391 -> 393 ;
394 [label="gini = 0.0\nsamples = 14\nvalue = [14, 0]"] ;
360 -> 394 ;
395 [label="TotalWorkingYears <= 7.5\ngini = 0.301\nsamples = 65\nvalue = [53, 12]"] ;
359 -> 395 ;
396 [label="PercentSalaryHike <= 18.5\ngini = 0.475\nsamples = 31\nvalue = [19, 12]"] ;
395 -> 396 ;
397 [label="MonthlyIncome <= 100960.0\ngini = 0.32\nsamples = 20\nvalue = [16, 4]"] ;
396 -> 397 ;
398 [label="JobRole <= 1.0\ngini = 0.111\nsamples = 17\nvalue = [16, 1]"] ;
397 -> 398 ;
399 [label="gini = 0.0\nsamples = 1\nvalue = [0, 1]"] ;
398 -> 399 ;
400 [label="gini = 0.0\nsamples = 16\nvalue = [16, 0]"] ;
398 -> 400 ;
401 [label="gini = 0.0\nsamples = 3\nvalue = [0, 3]"] ;
397 -> 401 ;
402 [label="JobRole <= 4.5\ngini = 0.397\nsamples = 11\nvalue = [3, 8]"] ;
396 -> 402 ;
403 [label="gini = 0.0\nsamples = 3\nvalue = [3, 0]"] ;
402 -> 403 ;
404 [label="gini = 0.0\nsamples = 8\nvalue = [0, 8]"] ;
402 -> 404 ;
405 [label="gini = 0.0\nsamples = 34\nvalue = [34, 0]"] ;
395 -> 405 ;
406 [label="MonthlyIncome <= 21955.0\ngini = 0.262\nsamples = 509\nvalue = [430, 79]"] ;
358 -> 406 ;
407 [label="NumCompaniesWorked <= 6.5\ngini = 0.497\nsamples = 26\nvalue = [14, 12]"] ;
406 -> 407 ;
408 [label="gini = 0.0\nsamples = 12\nvalue = [12, 0]"] ;
407 -> 408 ;
409 [label="TrainingTimesLastYear <= 5.5\ngini = 0.245\nsamples = 14\nvalue = [2, 12]"] ;
407 -> 409 ;
410 [label="gini = 0.0\nsamples = 12\nvalue = [0, 12]"] ;
409 -> 410 ;
411 [label="gini = 0.0\nsamples = 2\nvalue = [2, 0]"] ;
409 -> 411 ;
412 [label="YearsAtCompany <= 2.5\ngini = 0.239\nsamples = 483\nvalue = [416, 67]"] ;
406 -> 412 ;
413 [label="Age <= 37.5\ngini = 0.364\nsamples = 138\nvalue = [105, 33]"] ;
412 -> 413 ;
414 [label="MonthlyIncome <= 61230.0\ngini = 0.488\nsamples = 38\nvalue = [22, 16]"] ;
413 -> 414 ;
415 [label="MonthlyIncome <= 28765.0\ngini = 0.432\nsamples = 19\nvalue = [6, 13]"] ;
414 -> 415 ;
416 [label="gini = 0.0\nsamples = 3\nvalue = [3, 0]"] ;
415 -> 416 ;
417 [label="Age <= 35.5\ngini = 0.305\nsamples = 16\nvalue = [3, 13]"] ;
415 -> 417 ;
418 [label="gini = 0.0\nsamples = 3\nvalue = [3, 0]"] ;
417 -> 418 ;
419 [label="gini = 0.0\nsamples = 13\nvalue = [0, 13]"] ;
417 -> 419 ;
420 [label="JobRole <= 3.5\ngini = 0.266\nsamples = 19\nvalue = [16, 3]"] ;
414 -> 420 ;
421 [label="TotalWorkingYears <= 6.0\ngini = 0.48\nsamples = 5\nvalue = [2, 3]"] ;
420 -> 421 ;
422 [label="gini = 0.0\nsamples = 2\nvalue = [2, 0]"] ;
421 -> 422 ;
423 [label="gini = 0.0\nsamples = 3\nvalue = [0, 3]"] ;
421 -> 423 ;
424 [label="gini = 0.0\nsamples = 14\nvalue = [14, 0]"] ;
420 -> 424 ;
425 [label="TrainingTimesLastYear <= 5.5\ngini = 0.282\nsamples = 100\nvalue = [83, 17]"] ;
413 -> 425 ;
426 [label="JobRole <= 5.5\ngini = 0.247\nsamples = 97\nvalue = [83, 14]"] ;
425 -> 426 ;
427 [label="PercentSalaryHike <= 11.5\ngini = 0.075\nsamples = 51\nvalue = [49, 2]"] ;
426 -> 427 ;
428 [label="Age <= 40.5\ngini = 0.346\nsamples = 9\nvalue = [7, 2]"] ;
427 -> 428 ;
429 [label="gini = 0.0\nsamples = 2\nvalue = [0, 2]"] ;
428 -> 429 ;
430 [label="gini = 0.0\nsamples = 7\nvalue = [7, 0]"] ;
428 -> 430 ;
431 [label="gini = 0.0\nsamples = 42\nvalue = [42, 0]"] ;
427 -> 431 ;
432 [label="MonthlyIncome <= 75030.0\ngini = 0.386\nsamples = 46\nvalue = [34, 12]"] ;
426 -> 432 ;
433 [label="DistanceFromHome <= 9.5\ngini = 0.251\nsamples = 34\nvalue = [29, 5]"] ;
432 -> 433 ;
434 [label="gini = 0.0\nsamples = 23\nvalue = [23, 0]"] ;
433 -> 434 ;
435 [label="TotalWorkingYears <= 16.5\ngini = 0.496\nsamples = 11\nvalue = [6, 5]"] ;
433 -> 435 ;
436 [label="gini = 0.0\nsamples = 5\nvalue = [0, 5]"] ;
435 -> 436 ;
437 [label="gini = 0.0\nsamples = 6\nvalue = [6, 0]"] ;
435 -> 437 ;
438 [label="MonthlyIncome <= 139535.0\ngini = 0.486\nsamples = 12\nvalue = [5, 7]"] ;
432 -> 438 ;
439 [label="gini = 0.0\nsamples = 6\nvalue = [0, 6]"] ;
438 -> 439 ;
440 [label="JobRole <= 7.5\ngini = 0.278\nsamples = 6\nvalue = [5, 1]"] ;
438 -> 440 ;
441 [label="gini = 0.0\nsamples = 5\nvalue = [5, 0]"] ;
440 -> 441 ;
442 [label="gini = 0.0\nsamples = 1\nvalue = [0, 1]"] ;
440 -> 442 ;
443 [label="gini = 0.0\nsamples = 3\nvalue = [0, 3]"] ;
425 -> 443 ;
444 [label="TotalWorkingYears <= 38.0\ngini = 0.178\nsamples = 345\nvalue = [311, 34]"] ;
412 -> 444 ;
445 [label="MonthlyIncome <= 191605.0\ngini = 0.169\nsamples = 343\nvalue = [311, 32]"] ;
444 -> 445 ;
446 [label="PercentSalaryHike <= 24.5\ngini = 0.153\nsamples = 336\nvalue = [308, 28]"] ;
445 -> 446 ;
447 [label="JobRole <= 2.5\ngini = 0.132\nsamples = 325\nvalue = [302, 23]"] ;
446 -> 447 ;
448 [label="YearsSinceLastPromotion <= 5.5\ngini = 0.233\nsamples = 134\nvalue = [116, 18]"] ;
447 -> 448 ;
449 [label="Age <= 49.0\ngini = 0.141\nsamples = 118\nvalue = [109, 9]"] ;
448 -> 449 ;
450 [label="gini = 0.0\nsamples = 89\nvalue = [89, 0]"] ;
449 -> 450 ;
451 [label="YearsSinceLastPromotion <= 2.5\ngini = 0.428\nsamples = 29\nvalue = [20, 9]"] ;
449 -> 451 ;
452 [label="YearsWithCurrManager <= 1.5\ngini = 0.278\nsamples = 24\nvalue = [20, 4]"] ;
451 -> 452 ;
453 [label="gini = 0.0\nsamples = 3\nvalue = [0, 3]"] ;
452 -> 453 ;
454 [label="EducationField <= 0.5\ngini = 0.091\nsamples = 21\nvalue = [20, 1]"] ;
452 -> 454 ;
455 [label="gini = 0.0\nsamples = 1\nvalue = [0, 1]"] ;
454 -> 455 ;
456 [label="gini = 0.0\nsamples = 20\nvalue = [20, 0]"] ;
454 -> 456 ;
457 [label="gini = 0.0\nsamples = 5\nvalue = [0, 5]"] ;
451 -> 457 ;
458 [label="JobRole <= 1.5\ngini = 0.492\nsamples = 16\nvalue = [7, 9]"] ;
448 -> 458 ;
459 [label="gini = 0.0\nsamples = 8\nvalue = [0, 8]"] ;
458 -> 459 ;
460 [label="TotalWorkingYears <= 14.0\ngini = 0.219\nsamples = 8\nvalue = [7, 1]"] ;
458 -> 460 ;
461 [label="gini = 0.0\nsamples = 1\nvalue = [0, 1]"] ;
460 -> 461 ;
462 [label="gini = 0.0\nsamples = 7\nvalue = [7, 0]"] ;
460 -> 462 ;
463 [label="PercentSalaryHike <= 23.5\ngini = 0.051\nsamples = 191\nvalue = [186, 5]"] ;
447 -> 463 ;
464 [label="TotalWorkingYears <= 7.5\ngini = 0.032\nsamples = 186\nvalue = [183, 3]"] ;
463 -> 464 ;
465 [label="YearsWithCurrManager <= 2.5\ngini = 0.159\nsamples = 23\nvalue = [21, 2]"] ;
464 -> 465 ;
466 [label="gini = 0.0\nsamples = 19\nvalue = [19, 0]"] ;
465 -> 466 ;
467 [label="EducationField <= 2.5\ngini = 0.5\nsamples = 4\nvalue = [2, 2]"] ;
465 -> 467 ;
468 [label="gini = 0.0\nsamples = 2\nvalue = [0, 2]"] ;
467 -> 468 ;
469 [label="gini = 0.0\nsamples = 2\nvalue = [2, 0]"] ;
467 -> 469 ;
470 [label="Age <= 36.5\ngini = 0.012\nsamples = 163\nvalue = [162, 1]"] ;
464 -> 470 ;
471 [label="DistanceFromHome <= 1.5\ngini = 0.074\nsamples = 26\nvalue = [25, 1]"] ;
470 -> 471 ;
472 [label="Age <= 35.5\ngini = 0.5\nsamples = 2\nvalue = [1, 1]"] ;
471 -> 472 ;
473 [label="gini = 0.0\nsamples = 1\nvalue = [1, 0]"] ;
472 -> 473 ;
474 [label="gini = 0.0\nsamples = 1\nvalue = [0, 1]"] ;
472 -> 474 ;
475 [label="gini = 0.0\nsamples = 24\nvalue = [24, 0]"] ;
471 -> 475 ;
476 [label="gini = 0.0\nsamples = 137\nvalue = [137, 0]"] ;
470 -> 476 ;
477 [label="NumCompaniesWorked <= 6.5\ngini = 0.48\nsamples = 5\nvalue = [3, 2]"] ;
463 -> 477 ;
478 [label="gini = 0.0\nsamples = 3\nvalue = [3, 0]"] ;
477 -> 478 ;
479 [label="gini = 0.0\nsamples = 2\nvalue = [0, 2]"] ;
477 -> 479 ;
480 [label="JobRole <= 5.5\ngini = 0.496\nsamples = 11\nvalue = [6, 5]"] ;
446 -> 480 ;
481 [label="gini = 0.0\nsamples = 6\nvalue = [6, 0]"] ;
480 -> 481 ;
482 [label="gini = 0.0\nsamples = 5\nvalue = [0, 5]"] ;
480 -> 482 ;
483 [label="MonthlyIncome <= 198000.0\ngini = 0.49\nsamples = 7\nvalue = [3, 4]"] ;
445 -> 483 ;
484 [label="gini = 0.0\nsamples = 4\nvalue = [0, 4]"] ;
483 -> 484 ;
485 [label="gini = 0.0\nsamples = 3\nvalue = [3, 0]"] ;
483 -> 485 ;
486 [label="gini = 0.0\nsamples = 2\nvalue = [0, 2]"] ;
444 -> 486 ;
}